digraph Tree {
node [shape=box] ;
0 [label="2015_events <= 372.0\nmse = 195224.9726\nsamples = 44\nvalue = 305.0682"] ;
1 [label="2015_events <= 130.5\nmse = 9872.5355\nsamples = 35\nvalue = 93.4857"] ;
0 -> 1 [labeldistance=2.5, labelangle=45, headlabel="True"] ;
2 [label="2015_events <= 42.0\nmse = 1701.4324\nsamples = 28\nvalue = 49.1786"] ;
1 -> 2 ;
3 [label="2015_events <= 10.5\nmse = 194.7822\nsamples = 15\nvalue = 16.8667"] ;
2 -> 3 ;
4 [label="fsi <= 82.35\nmse = 2.9167\nsamples = 6\nvalue = 5.5"] ;
3 -> 4 ;
5 [label="water_stress <= 2.6678\nmse = 0.25\nsamples = 2\nvalue = 3.5"] ;
4 -> 5 ;
6 [label="mse = 0.0\nsamples = 1\nvalue = 4.0"] ;
5 -> 6 ;
7 [label="mse = 0.0\nsamples = 1\nvalue = 3.0"] ;
5 -> 7 ;
8 [label="water_stress <= 3.0619\nmse = 1.25\nsamples = 4\nvalue = 6.5"] ;
4 -> 8 ;
9 [label="mse = 0.25\nsamples = 2\nvalue = 7.5"] ;
8 -> 9 ;
10 [label="mse = 0.25\nsamples = 2\nvalue = 5.5"] ;
8 -> 10 ;
11 [label="water_stress <= 0.5152\nmse = 179.1358\nsamples = 9\nvalue = 24.4444"] ;
3 -> 11 ;
12 [label="HDI <= 0.486\nmse = 29.76\nsamples = 5\nvalue = 14.8"] ;
11 -> 12 ;
13 [label="mse = 11.5556\nsamples = 3\nvalue = 18.6667"] ;
12 -> 13 ;
14 [label="mse = 1.0\nsamples = 2\nvalue = 9.0"] ;
12 -> 14 ;
15 [label="HDI <= 0.4545\nmse = 104.25\nsamples = 4\nvalue = 36.5"] ;
11 -> 15 ;
16 [label="mse = 0.0\nsamples = 1\nvalue = 48.0"] ;
15 -> 16 ;
17 [label="mse = 80.2222\nsamples = 3\nvalue = 32.6667"] ;
15 -> 17 ;
18 [label="2015_events <= 102.0\nmse = 845.1716\nsamples = 13\nvalue = 86.4615"] ;
2 -> 18 ;
19 [label="2015_events <= 47.5\nmse = 761.1111\nsamples = 9\nvalue = 75.0"] ;
18 -> 19 ;
20 [label="mse = 0.0\nsamples = 1\nvalue = 126.0"] ;
19 -> 20 ;
21 [label="2015_events <= 80.5\nmse = 490.4844\nsamples = 8\nvalue = 68.625"] ;
19 -> 21 ;
22 [label="mse = 150.2222\nsamples = 6\nvalue = 61.6667"] ;
21 -> 22 ;
23 [label="mse = 930.25\nsamples = 2\nvalue = 89.5"] ;
21 -> 23 ;
24 [label="HDI <= 0.5455\nmse = 73.6875\nsamples = 4\nvalue = 112.25"] ;
18 -> 24 ;
25 [label="mse = 0.0\nsamples = 2\nvalue = 105.0"] ;
24 -> 25 ;
26 [label="fsi <= 79.85\nmse = 42.25\nsamples = 2\nvalue = 119.5"] ;
24 -> 26 ;
27 [label="mse = 0.0\nsamples = 1\nvalue = 113.0"] ;
26 -> 27 ;
28 [label="mse = 0.0\nsamples = 1\nvalue = 126.0"] ;
26 -> 28 ;
29 [label="2015_events <= 292.5\nmse = 3294.4898\nsamples = 7\nvalue = 270.7143"] ;
1 -> 29 ;
30 [label="fsi <= 93.6\nmse = 2155.25\nsamples = 4\nvalue = 235.5"] ;
29 -> 30 ;
31 [label="mse = 0.0\nsamples = 1\nvalue = 169.0"] ;
30 -> 31 ;
32 [label="fsi <= 95.65\nmse = 908.2222\nsamples = 3\nvalue = 257.6667"] ;
30 -> 32 ;
33 [label="mse = 0.0\nsamples = 1\nvalue = 299.0"] ;
32 -> 33 ;
34 [label="2015_events <= 241.0\nmse = 81.0\nsamples = 2\nvalue = 237.0"] ;
32 -> 34 ;
35 [label="mse = 0.0\nsamples = 1\nvalue = 246.0"] ;
34 -> 35 ;
36 [label="mse = 0.0\nsamples = 1\nvalue = 228.0"] ;
34 -> 36 ;
37 [label="water_stress <= 2.0635\nmse = 955.5556\nsamples = 3\nvalue = 317.6667"] ;
29 -> 37 ;
38 [label="2015_events <= 343.0\nmse = 25.0\nsamples = 2\nvalue = 296.0"] ;
37 -> 38 ;
39 [label="mse = 0.0\nsamples = 1\nvalue = 291.0"] ;
38 -> 39 ;
40 [label="mse = 0.0\nsamples = 1\nvalue = 301.0"] ;
38 -> 40 ;
41 [label="mse = 0.0\nsamples = 1\nvalue = 361.0"] ;
37 -> 41 ;
42 [label="HDI <= 0.6785\nmse = 64911.6543\nsamples = 9\nvalue = 1127.8889"] ;
0 -> 42 [labeldistance=2.5, labelangle=-45, headlabel="False"] ;
43 [label="HDI <= 0.469\nmse = 27490.5556\nsamples = 6\nvalue = 1269.3333"] ;
42 -> 43 ;
44 [label="fsi <= 106.25\nmse = 11229.5556\nsamples = 3\nvalue = 1121.6667"] ;
43 -> 44 ;
45 [label="fsi <= 97.75\nmse = 930.25\nsamples = 2\nvalue = 1194.5"] ;
44 -> 45 ;
46 [label="mse = 0.0\nsamples = 1\nvalue = 1225.0"] ;
45 -> 46 ;
47 [label="mse = 0.0\nsamples = 1\nvalue = 1164.0"] ;
45 -> 47 ;
48 [label="mse = 0.0\nsamples = 1\nvalue = 976.0"] ;
44 -> 48 ;
49 [label="2015_events <= 1579.5\nmse = 140.6667\nsamples = 3\nvalue = 1417.0"] ;
43 -> 49 ;
50 [label="water_stress <= 1.9767\nmse = 42.25\nsamples = 2\nvalue = 1424.5"] ;
49 -> 50 ;
51 [label="mse = 0.0\nsamples = 1\nvalue = 1431.0"] ;
50 -> 51 ;
52 [label="mse = 0.0\nsamples = 1\nvalue = 1418.0"] ;
50 -> 52 ;
53 [label="mse = 0.0\nsamples = 1\nvalue = 1402.0"] ;
49 -> 53 ;
54 [label="water_stress <= 4.1411\nmse = 19714.6667\nsamples = 3\nvalue = 845.0"] ;
42 -> 54 ;
55 [label="fsi <= 82.8\nmse = 169.0\nsamples = 2\nvalue = 746.0"] ;
54 -> 55 ;
56 [label="mse = 0.0\nsamples = 1\nvalue = 759.0"] ;
55 -> 56 ;
57 [label="mse = 0.0\nsamples = 1\nvalue = 733.0"] ;
55 -> 57 ;
58 [label="mse = 0.0\nsamples = 1\nvalue = 1043.0"] ;
54 -> 58 ;
}